digraph Tree {
node [shape=box, style="rounded", color="black", fontname=helvetica] ;
edge [fontname=helvetica] ;
0 [label="Margin <= -0.8385\ngini = 0.4997\nsamples = 521\nvalue = [425, 404]"] ;
1 [label="Shape <= -0.2271\ngini = 0.1964\nsamples = 199\nvalue = [282, 35]"] ;
0 -> 1 [labeldistance=2.5, labelangle=45, headlabel="True"] ;
2 [label="BI-RADS <= 0.0562\ngini = 0.1766\nsamples = 180\nvalue = [258, 28]"] ;
1 -> 2 ;
3 [label="gini = 0.1567\nsamples = 176\nvalue = [256, 24]"] ;
2 -> 3 ;
4 [label="gini = 0.4444\nsamples = 4\nvalue = [2, 4]"] ;
2 -> 4 ;
5 [label="Density <= -4.0364\ngini = 0.3496\nsamples = 19\nvalue = [24, 7]"] ;
1 -> 5 ;
6 [label="gini = 0.5\nsamples = 2\nvalue = [2, 2]"] ;
5 -> 6 ;
7 [label="gini = 0.3018\nsamples = 17\nvalue = [22, 5]"] ;
5 -> 7 ;
8 [label="BI-RADS <= 0.0562\ngini = 0.4026\nsamples = 322\nvalue = [143, 369]"] ;
0 -> 8 [labeldistance=2.5, labelangle=-45, headlabel="False"] ;
9 [label="Margin <= 0.4385\ngini = 0.4999\nsamples = 120\nvalue = [99, 96]"] ;
8 -> 9 ;
10 [label="gini = 0.4444\nsamples = 34\nvalue = [36, 18]"] ;
9 -> 10 ;
11 [label="gini = 0.4943\nsamples = 86\nvalue = [63, 78]"] ;
9 -> 11 ;
12 [label="Density <= -4.0364\ngini = 0.2391\nsamples = 202\nvalue = [44, 273]"] ;
8 -> 12 ;
13 [label="gini = 0.4082\nsamples = 3\nvalue = [5, 2]"] ;
12 -> 13 ;
14 [label="gini = 0.22\nsamples = 199\nvalue = [39, 271]"] ;
12 -> 14 ;
}