digraph Tree {
node [shape=box, style="rounded", color="black", fontname=helvetica] ;
edge [fontname=helvetica] ;
0 [label="Margin <= -0.8385\ngini = 0.4984\nsamples = 521\nvalue = [438, 391]"] ;
1 [label="Shape <= -1.0325\ngini = 0.18\nsamples = 202\nvalue = [288, 32]"] ;
0 -> 1 [labeldistance=2.5, labelangle=45, headlabel="True"] ;
2 [label="BI-RADS <= 0.0562\ngini = 0.1375\nsamples = 108\nvalue = [162, 13]"] ;
1 -> 2 ;
3 [label="Density <= -4.0364\ngini = 0.1107\nsamples = 104\nvalue = [160, 10]"] ;
2 -> 3 ;
4 [label="Age <= -0.8035\ngini = 0.32\nsamples = 4\nvalue = [4, 1]"] ;
3 -> 4 ;
5 [label="gini = 0.0\nsamples = 1\nvalue = [0, 1]"] ;
4 -> 5 ;
6 [label="gini = 0.0\nsamples = 3\nvalue = [4, 0]"] ;
4 -> 6 ;
7 [label="BI-RADS <= -0.4737\ngini = 0.1031\nsamples = 100\nvalue = [156, 9]"] ;
3 -> 7 ;
8 [label="gini = 0.0\nsamples = 7\nvalue = [11, 0]"] ;
7 -> 8 ;
9 [label="Age <= 0.5946\ngini = 0.1101\nsamples = 93\nvalue = [145, 9]"] ;
7 -> 9 ;
10 [label="Density <= -1.1852\ngini = 0.0679\nsamples = 86\nvalue = [137, 5]"] ;
9 -> 10 ;
11 [label="gini = 0.0\nsamples = 3\nvalue = [6, 0]"] ;
10 -> 11 ;
12 [label="Age <= -1.0422\ngini = 0.0708\nsamples = 83\nvalue = [131, 5]"] ;
10 -> 12 ;
13 [label="gini = 0.0\nsamples = 27\nvalue = [49, 0]"] ;
12 -> 13 ;
14 [label="Age <= -0.974\ngini = 0.1083\nsamples = 56\nvalue = [82, 5]"] ;
12 -> 14 ;
15 [label="gini = 0.4444\nsamples = 4\nvalue = [4, 2]"] ;
14 -> 15 ;
16 [label="Age <= -0.2238\ngini = 0.0713\nsamples = 52\nvalue = [78, 3]"] ;
14 -> 16 ;
17 [label="gini = 0.0\nsamples = 25\nvalue = [40, 0]"] ;
16 -> 17 ;
18 [label="Age <= -0.0874\ngini = 0.1356\nsamples = 27\nvalue = [38, 3]"] ;
16 -> 18 ;
19 [label="Age <= -0.1556\ngini = 0.2778\nsamples = 10\nvalue = [15, 3]"] ;
18 -> 19 ;
20 [label="gini = 0.2778\nsamples = 3\nvalue = [5, 1]"] ;
19 -> 20 ;
21 [label="gini = 0.2778\nsamples = 7\nvalue = [10, 2]"] ;
19 -> 21 ;
22 [label="gini = 0.0\nsamples = 17\nvalue = [23, 0]"] ;
18 -> 22 ;
23 [label="Age <= 0.6628\ngini = 0.4444\nsamples = 7\nvalue = [8, 4]"] ;
9 -> 23 ;
24 [label="gini = 0.0\nsamples = 1\nvalue = [0, 2]"] ;
23 -> 24 ;
25 [label="Age <= 0.7992\ngini = 0.32\nsamples = 6\nvalue = [8, 2]"] ;
23 -> 25 ;
26 [label="gini = 0.0\nsamples = 3\nvalue = [4, 0]"] ;
25 -> 26 ;
27 [label="Age <= 0.8674\ngini = 0.4444\nsamples = 3\nvalue = [4, 2]"] ;
25 -> 27 ;
28 [label="gini = 0.5\nsamples = 2\nvalue = [2, 2]"] ;
27 -> 28 ;
29 [label="gini = 0.0\nsamples = 1\nvalue = [2, 0]"] ;
27 -> 29 ;
30 [label="Age <= 0.5946\ngini = 0.48\nsamples = 4\nvalue = [2, 3]"] ;
2 -> 30 ;
31 [label="BI-RADS <= 0.5861\ngini = 0.4444\nsamples = 2\nvalue = [2, 1]"] ;
30 -> 31 ;
32 [label="gini = 0.0\nsamples = 1\nvalue = [0, 1]"] ;
31 -> 32 ;
33 [label="gini = 0.0\nsamples = 1\nvalue = [2, 0]"] ;
31 -> 33 ;
34 [label="gini = 0.0\nsamples = 2\nvalue = [0, 2]"] ;
30 -> 34 ;
35 [label="BI-RADS <= 0.0562\ngini = 0.2277\nsamples = 94\nvalue = [126, 19]"] ;
1 -> 35 ;
36 [label="Age <= 1.2084\ngini = 0.1538\nsamples = 85\nvalue = [120, 11]"] ;
35 -> 36 ;
37 [label="Density <= -1.1852\ngini = 0.142\nsamples = 84\nvalue = [120, 10]"] ;
36 -> 37 ;
38 [label="gini = 0.0\nsamples = 15\nvalue = [19, 0]"] ;
37 -> 38 ;
39 [label="Shape <= -0.2271\ngini = 0.1639\nsamples = 69\nvalue = [101, 10]"] ;
37 -> 39 ;
40 [label="BI-RADS <= -0.4737\ngini = 0.142\nsamples = 57\nvalue = [84, 7]"] ;
39 -> 40 ;
41 [label="Age <= -0.8376\ngini = 0.5\nsamples = 2\nvalue = [1, 1]"] ;
40 -> 41 ;
42 [label="gini = 0.0\nsamples = 1\nvalue = [0, 1]"] ;
41 -> 42 ;
43 [label="gini = 0.0\nsamples = 1\nvalue = [1, 0]"] ;
41 -> 43 ;
44 [label="Age <= -1.4514\ngini = 0.1257\nsamples = 55\nvalue = [83, 6]"] ;
40 -> 44 ;
45 [label="gini = 0.0\nsamples = 9\nvalue = [16, 0]"] ;
44 -> 45 ;
46 [label="Age <= -1.2468\ngini = 0.1509\nsamples = 46\nvalue = [67, 6]"] ;
44 -> 46 ;
47 [label="gini = 0.0\nsamples = 1\nvalue = [0, 1]"] ;
46 -> 47 ;
48 [label="Age <= -0.7694\ngini = 0.1292\nsamples = 45\nvalue = [67, 5]"] ;
46 -> 48 ;
49 [label="gini = 0.0\nsamples = 9\nvalue = [16, 0]"] ;
48 -> 49 ;
50 [label="Age <= -0.7012\ngini = 0.1626\nsamples = 36\nvalue = [51, 5]"] ;
48 -> 50 ;
51 [label="gini = 0.5\nsamples = 2\nvalue = [2, 2]"] ;
50 -> 51 ;
52 [label="Age <= 0.1854\ngini = 0.1087\nsamples = 34\nvalue = [49, 3]"] ;
50 -> 52 ;
53 [label="gini = 0.0\nsamples = 17\nvalue = [26, 0]"] ;
52 -> 53 ;
54 [label="Age <= 0.2536\ngini = 0.2041\nsamples = 17\nvalue = [23, 3]"] ;
52 -> 54 ;
55 [label="gini = 0.375\nsamples = 4\nvalue = [6, 2]"] ;
54 -> 55 ;
56 [label="Age <= 0.7992\ngini = 0.1049\nsamples = 13\nvalue = [17, 1]"] ;
54 -> 56 ;
57 [label="gini = 0.0\nsamples = 7\nvalue = [9, 0]"] ;
56 -> 57 ;
58 [label="Age <= 0.9356\ngini = 0.1975\nsamples = 6\nvalue = [8, 1]"] ;
56 -> 58 ;
59 [label="gini = 0.4444\nsamples = 2\nvalue = [2, 1]"] ;
58 -> 59 ;
60 [label="gini = 0.0\nsamples = 4\nvalue = [6, 0]"] ;
58 -> 60 ;
61 [label="Shape <= 0.5783\ngini = 0.255\nsamples = 12\nvalue = [17, 3]"] ;
39 -> 61 ;
62 [label="BI-RADS <= -0.4737\ngini = 0.2778\nsamples = 11\nvalue = [15, 3]"] ;
61 -> 62 ;
63 [label="gini = 0.0\nsamples = 1\nvalue = [1, 0]"] ;
62 -> 63 ;
64 [label="Age <= -0.8376\ngini = 0.2907\nsamples = 10\nvalue = [14, 3]"] ;
62 -> 64 ;
65 [label="gini = 0.0\nsamples = 5\nvalue = [9, 0]"] ;
64 -> 65 ;
66 [label="Age <= 0.2195\ngini = 0.4688\nsamples = 5\nvalue = [5, 3]"] ;
64 -> 66 ;
67 [label="Age <= -0.292\ngini = 0.375\nsamples = 3\nvalue = [1, 3]"] ;
66 -> 67 ;
68 [label="Age <= -0.633\ngini = 0.5\nsamples = 2\nvalue = [1, 1]"] ;
67 -> 68 ;
69 [label="gini = 0.0\nsamples = 1\nvalue = [0, 1]"] ;
68 -> 69 ;
70 [label="gini = 0.0\nsamples = 1\nvalue = [1, 0]"] ;
68 -> 70 ;
71 [label="gini = 0.0\nsamples = 1\nvalue = [0, 2]"] ;
67 -> 71 ;
72 [label="gini = 0.0\nsamples = 2\nvalue = [4, 0]"] ;
66 -> 72 ;
73 [label="gini = 0.0\nsamples = 1\nvalue = [2, 0]"] ;
61 -> 73 ;
74 [label="gini = 0.0\nsamples = 1\nvalue = [0, 1]"] ;
36 -> 74 ;
75 [label="Shape <= -0.2271\ngini = 0.4898\nsamples = 9\nvalue = [6, 8]"] ;
35 -> 75 ;
76 [label="BI-RADS <= 0.5861\ngini = 0.2188\nsamples = 6\nvalue = [1, 7]"] ;
75 -> 76 ;
77 [label="gini = 0.0\nsamples = 5\nvalue = [0, 7]"] ;
76 -> 77 ;
78 [label="gini = 0.0\nsamples = 1\nvalue = [1, 0]"] ;
76 -> 78 ;
79 [label="Density <= -2.6108\ngini = 0.2778\nsamples = 3\nvalue = [5, 1]"] ;
75 -> 79 ;
80 [label="gini = 0.0\nsamples = 1\nvalue = [0, 1]"] ;
79 -> 80 ;
81 [label="gini = 0.0\nsamples = 2\nvalue = [5, 0]"] ;
79 -> 81 ;
82 [label="BI-RADS <= 0.0562\ngini = 0.4157\nsamples = 319\nvalue = [150, 359]"] ;
0 -> 82 [labeldistance=2.5, labelangle=-45, headlabel="False"] ;
83 [label="Shape <= 0.5783\ngini = 0.4715\nsamples = 128\nvalue = [122, 75]"] ;
82 -> 83 ;
84 [label="Shape <= -1.0325\ngini = 0.3947\nsamples = 56\nvalue = [62, 23]"] ;
83 -> 84 ;
85 [label="Density <= -1.1852\ngini = 0.142\nsamples = 9\nvalue = [12, 1]"] ;
84 -> 85 ;
86 [label="gini = 0.0\nsamples = 1\nvalue = [3, 0]"] ;
85 -> 86 ;
87 [label="Margin <= -0.2\ngini = 0.18\nsamples = 8\nvalue = [9, 1]"] ;
85 -> 87 ;
88 [label="Age <= 0.1172\ngini = 0.375\nsamples = 2\nvalue = [3, 1]"] ;
87 -> 88 ;
89 [label="gini = 0.0\nsamples = 1\nvalue = [3, 0]"] ;
88 -> 89 ;
90 [label="gini = 0.0\nsamples = 1\nvalue = [0, 1]"] ;
88 -> 90 ;
91 [label="gini = 0.0\nsamples = 6\nvalue = [6, 0]"] ;
87 -> 91 ;
92 [label="Margin <= 0.4385\ngini = 0.4244\nsamples = 47\nvalue = [50, 22]"] ;
84 -> 92 ;
93 [label="Age <= -0.1556\ngini = 0.3418\nsamples = 23\nvalue = [25, 7]"] ;
92 -> 93 ;
94 [label="gini = 0.0\nsamples = 12\nvalue = [16, 0]"] ;
93 -> 94 ;
95 [label="Density <= -1.1852\ngini = 0.4922\nsamples = 11\nvalue = [9, 7]"] ;
93 -> 95 ;
96 [label="gini = 0.0\nsamples = 1\nvalue = [1, 0]"] ;
95 -> 96 ;
97 [label="Shape <= -0.2271\ngini = 0.4978\nsamples = 10\nvalue = [8, 7]"] ;
95 -> 97 ;
98 [label="Age <= 0.2877\ngini = 0.32\nsamples = 3\nvalue = [4, 1]"] ;
97 -> 98 ;
99 [label="gini = 0.0\nsamples = 1\nvalue = [0, 1]"] ;
98 -> 99 ;
100 [label="gini = 0.0\nsamples = 2\nvalue = [4, 0]"] ;
98 -> 100 ;
101 [label="Margin <= -0.2\ngini = 0.48\nsamples = 7\nvalue = [4, 6]"] ;
97 -> 101 ;
102 [label="gini = 0.0\nsamples = 1\nvalue = [1, 0]"] ;
101 -> 102 ;
103 [label="Age <= 0.2536\ngini = 0.4444\nsamples = 6\nvalue = [3, 6]"] ;
101 -> 103 ;
104 [label="gini = 0.0\nsamples = 1\nvalue = [0, 4]"] ;
103 -> 104 ;
105 [label="Age <= 0.5264\ngini = 0.48\nsamples = 5\nvalue = [3, 2]"] ;
103 -> 105 ;
106 [label="gini = 0.4444\nsamples = 3\nvalue = [2, 1]"] ;
105 -> 106 ;
107 [label="gini = 0.5\nsamples = 2\nvalue = [1, 1]"] ;
105 -> 107 ;
108 [label="Age <= 0.39\ngini = 0.4688\nsamples = 24\nvalue = [25, 15]"] ;
92 -> 108 ;
109 [label="BI-RADS <= -0.4737\ngini = 0.2778\nsamples = 16\nvalue = [20, 4]"] ;
108 -> 109 ;
110 [label="gini = 0.0\nsamples = 3\nvalue = [4, 0]"] ;
109 -> 110 ;
111 [label="Shape <= -0.2271\ngini = 0.32\nsamples = 13\nvalue = [16, 4]"] ;
109 -> 111 ;
112 [label="Age <= 0.049\ngini = 0.375\nsamples = 8\nvalue = [9, 3]"] ;
111 -> 112 ;
113 [label="Density <= -1.1852\ngini = 0.48\nsamples = 4\nvalue = [3, 2]"] ;
112 -> 113 ;
114 [label="gini = 0.0\nsamples = 1\nvalue = [1, 0]"] ;
113 -> 114 ;
115 [label="Age <= -0.0533\ngini = 0.5\nsamples = 3\nvalue = [2, 2]"] ;
113 -> 115 ;
116 [label="gini = 0.0\nsamples = 1\nvalue = [1, 0]"] ;
115 -> 116 ;
117 [label="gini = 0.4444\nsamples = 2\nvalue = [1, 2]"] ;
115 -> 117 ;
118 [label="Margin <= 1.0769\ngini = 0.2449\nsamples = 4\nvalue = [6, 1]"] ;
112 -> 118 ;
119 [label="gini = 0.375\nsamples = 3\nvalue = [3, 1]"] ;
118 -> 119 ;
120 [label="gini = 0.0\nsamples = 1\nvalue = [3, 0]"] ;
118 -> 120 ;
121 [label="Age <= -0.633\ngini = 0.2188\nsamples = 5\nvalue = [7, 1]"] ;
111 -> 121 ;
122 [label="gini = 0.0\nsamples = 1\nvalue = [0, 1]"] ;
121 -> 122 ;
123 [label="gini = 0.0\nsamples = 4\nvalue = [7, 0]"] ;
121 -> 123 ;
124 [label="Shape <= -0.2271\ngini = 0.4297\nsamples = 8\nvalue = [5, 11]"] ;
108 -> 124 ;
125 [label="Age <= 0.5946\ngini = 0.4444\nsamples = 7\nvalue = [5, 10]"] ;
124 -> 125 ;
126 [label="Age <= 0.4923\ngini = 0.4861\nsamples = 5\nvalue = [5, 7]"] ;
125 -> 126 ;
127 [label="gini = 0.4898\nsamples = 3\nvalue = [3, 4]"] ;
126 -> 127 ;
128 [label="gini = 0.48\nsamples = 2\nvalue = [2, 3]"] ;
126 -> 128 ;
129 [label="gini = 0.0\nsamples = 2\nvalue = [0, 3]"] ;
125 -> 129 ;
130 [label="gini = 0.0\nsamples = 1\nvalue = [0, 1]"] ;
124 -> 130 ;
131 [label="Age <= 0.8674\ngini = 0.4974\nsamples = 72\nvalue = [60, 52]"] ;
83 -> 131 ;
132 [label="BI-RADS <= -0.4737\ngini = 0.4543\nsamples = 56\nvalue = [56, 30]"] ;
131 -> 132 ;
133 [label="Age <= -1.0081\ngini = 0.5\nsamples = 4\nvalue = [3, 3]"] ;
132 -> 133 ;
134 [label="gini = 0.0\nsamples = 1\nvalue = [2, 0]"] ;
133 -> 134 ;
135 [label="BI-RADS <= -1.5334\ngini = 0.375\nsamples = 3\nvalue = [1, 3]"] ;
133 -> 135 ;
136 [label="gini = 0.0\nsamples = 1\nvalue = [1, 0]"] ;
135 -> 136 ;
137 [label="gini = 0.0\nsamples = 2\nvalue = [0, 3]"] ;
135 -> 137 ;
138 [label="Margin <= 0.4385\ngini = 0.4472\nsamples = 52\nvalue = [53, 27]"] ;
132 -> 138 ;
139 [label="Density <= -1.1852\ngini = 0.2076\nsamples = 12\nvalue = [15, 2]"] ;
138 -> 139 ;
140 [label="Age <= -0.3943\ngini = 0.375\nsamples = 2\nvalue = [3, 1]"] ;
139 -> 140 ;
141 [label="gini = 0.0\nsamples = 1\nvalue = [0, 1]"] ;
140 -> 141 ;
142 [label="gini = 0.0\nsamples = 1\nvalue = [3, 0]"] ;
140 -> 142 ;
143 [label="Age <= 0.4241\ngini = 0.142\nsamples = 10\nvalue = [12, 1]"] ;
139 -> 143 ;
144 [label="gini = 0.0\nsamples = 7\nvalue = [9, 0]"] ;
143 -> 144 ;
145 [label="Age <= 0.5946\ngini = 0.375\nsamples = 3\nvalue = [3, 1]"] ;
143 -> 145 ;
146 [label="gini = 0.0\nsamples = 1\nvalue = [0, 1]"] ;
145 -> 146 ;
147 [label="gini = 0.0\nsamples = 2\nvalue = [3, 0]"] ;
145 -> 147 ;
148 [label="Margin <= 1.0769\ngini = 0.4787\nsamples = 40\nvalue = [38, 25]"] ;
138 -> 148 ;
149 [label="Age <= 0.049\ngini = 0.466\nsamples = 29\nvalue = [29, 17]"] ;
148 -> 149 ;
150 [label="Age <= -0.2238\ngini = 0.2778\nsamples = 13\nvalue = [15, 3]"] ;
149 -> 150 ;
151 [label="Age <= -0.633\ngini = 0.42\nsamples = 8\nvalue = [7, 3]"] ;
150 -> 151 ;
152 [label="gini = 0.0\nsamples = 4\nvalue = [6, 0]"] ;
151 -> 152 ;
153 [label="Age <= -0.3602\ngini = 0.375\nsamples = 4\nvalue = [1, 3]"] ;
151 -> 153 ;
154 [label="gini = 0.5\nsamples = 2\nvalue = [1, 1]"] ;
153 -> 154 ;
155 [label="gini = 0.0\nsamples = 2\nvalue = [0, 2]"] ;
153 -> 155 ;
156 [label="gini = 0.0\nsamples = 5\nvalue = [8, 0]"] ;
150 -> 156 ;
157 [label="Age <= 0.1854\ngini = 0.5\nsamples = 16\nvalue = [14, 14]"] ;
149 -> 157 ;
158 [label="gini = 0.0\nsamples = 2\nvalue = [0, 5]"] ;
157 -> 158 ;
159 [label="Age <= 0.7992\ngini = 0.4764\nsamples = 14\nvalue = [14, 9]"] ;
157 -> 159 ;
160 [label="Age <= 0.731\ngini = 0.4898\nsamples = 12\nvalue = [12, 9]"] ;
159 -> 160 ;
161 [label="Age <= 0.6287\ngini = 0.4444\nsamples = 9\nvalue = [10, 5]"] ;
160 -> 161 ;
162 [label="Age <= 0.5264\ngini = 0.4861\nsamples = 8\nvalue = [7, 5]"] ;
161 -> 162 ;
163 [label="Age <= 0.3218\ngini = 0.4444\nsamples = 6\nvalue = [6, 3]"] ;
162 -> 163 ;
164 [label="gini = 0.375\nsamples = 2\nvalue = [3, 1]"] ;
163 -> 164 ;
165 [label="Age <= 0.4582\ngini = 0.48\nsamples = 4\nvalue = [3, 2]"] ;
163 -> 165 ;
166 [label="gini = 0.0\nsamples = 1\nvalue = [0, 1]"] ;
165 -> 166 ;
167 [label="gini = 0.375\nsamples = 3\nvalue = [3, 1]"] ;
165 -> 167 ;
168 [label="gini = 0.4444\nsamples = 2\nvalue = [1, 2]"] ;
162 -> 168 ;
169 [label="gini = 0.0\nsamples = 1\nvalue = [3, 0]"] ;
161 -> 169 ;
170 [label="gini = 0.4444\nsamples = 3\nvalue = [2, 4]"] ;
160 -> 170 ;
171 [label="gini = 0.0\nsamples = 2\nvalue = [2, 0]"] ;
159 -> 171 ;
172 [label="Age <= 0.0831\ngini = 0.4983\nsamples = 11\nvalue = [9, 8]"] ;
148 -> 172 ;
173 [label="Age <= -0.4625\ngini = 0.2778\nsamples = 5\nvalue = [1, 5]"] ;
172 -> 173 ;
174 [label="gini = 0.0\nsamples = 1\nvalue = [1, 0]"] ;
173 -> 174 ;
175 [label="gini = 0.0\nsamples = 4\nvalue = [0, 5]"] ;
173 -> 175 ;
176 [label="Age <= 0.7992\ngini = 0.3967\nsamples = 6\nvalue = [8, 3]"] ;
172 -> 176 ;
177 [label="Age <= 0.731\ngini = 0.32\nsamples = 5\nvalue = [8, 2]"] ;
176 -> 177 ;
178 [label="Age <= 0.2877\ngini = 0.48\nsamples = 4\nvalue = [3, 2]"] ;
177 -> 178 ;
179 [label="gini = 0.0\nsamples = 1\nvalue = [2, 0]"] ;
178 -> 179 ;
180 [label="Age <= 0.4923\ngini = 0.4444\nsamples = 3\nvalue = [1, 2]"] ;
178 -> 180 ;
181 [label="gini = 0.0\nsamples = 1\nvalue = [0, 1]"] ;
180 -> 181 ;
182 [label="Age <= 0.6287\ngini = 0.5\nsamples = 2\nvalue = [1, 1]"] ;
180 -> 182 ;
183 [label="gini = 0.0\nsamples = 1\nvalue = [1, 0]"] ;
182 -> 183 ;
184 [label="gini = 0.0\nsamples = 1\nvalue = [0, 1]"] ;
182 -> 184 ;
185 [label="gini = 0.0\nsamples = 1\nvalue = [5, 0]"] ;
177 -> 185 ;
186 [label="gini = 0.0\nsamples = 1\nvalue = [0, 1]"] ;
176 -> 186 ;
187 [label="Age <= 1.1402\ngini = 0.2604\nsamples = 16\nvalue = [4, 22]"] ;
131 -> 187 ;
188 [label="gini = 0.0\nsamples = 10\nvalue = [0, 13]"] ;
187 -> 188 ;
189 [label="Age <= 1.2766\ngini = 0.426\nsamples = 6\nvalue = [4, 9]"] ;
187 -> 189 ;
190 [label="gini = 0.0\nsamples = 1\nvalue = [4, 0]"] ;
189 -> 190 ;
191 [label="gini = 0.0\nsamples = 5\nvalue = [0, 9]"] ;
189 -> 191 ;
192 [label="Age <= 0.1172\ngini = 0.1634\nsamples = 191\nvalue = [28, 284]"] ;
82 -> 192 ;
193 [label="Margin <= 1.0769\ngini = 0.2849\nsamples = 57\nvalue = [16, 77]"] ;
192 -> 193 ;
194 [label="Margin <= 0.4385\ngini = 0.3275\nsamples = 37\nvalue = [13, 50]"] ;
193 -> 194 ;
195 [label="Margin <= -0.2\ngini = 0.1884\nsamples = 12\nvalue = [2, 17]"] ;
194 -> 195 ;
196 [label="gini = 0.0\nsamples = 2\nvalue = [0, 3]"] ;
195 -> 196 ;
197 [label="Density <= -1.1852\ngini = 0.2188\nsamples = 10\nvalue = [2, 14]"] ;
195 -> 197 ;
198 [label="gini = 0.0\nsamples = 2\nvalue = [0, 4]"] ;
197 -> 198 ;
199 [label="Age <= -0.1897\ngini = 0.2778\nsamples = 8\nvalue = [2, 10]"] ;
197 -> 199 ;
200 [label="gini = 0.0\nsamples = 5\nvalue = [0, 7]"] ;
199 -> 200 ;
201 [label="Age <= -0.0874\ngini = 0.48\nsamples = 3\nvalue = [2, 3]"] ;
199 -> 201 ;
202 [label="gini = 0.0\nsamples = 1\nvalue = [2, 0]"] ;
201 -> 202 ;
203 [label="gini = 0.0\nsamples = 2\nvalue = [0, 3]"] ;
201 -> 203 ;
204 [label="BI-RADS <= 0.5861\ngini = 0.375\nsamples = 25\nvalue = [11, 33]"] ;
194 -> 204 ;
205 [label="Age <= -0.0192\ngini = 0.3807\nsamples = 24\nvalue = [11, 32]"] ;
204 -> 205 ;
206 [label="Shape <= 0.5783\ngini = 0.1609\nsamples = 20\nvalue = [3, 31]"] ;
205 -> 206 ;
207 [label="Shape <= -0.2271\ngini = 0.4444\nsamples = 5\nvalue = [2, 4]"] ;
206 -> 207 ;
208 [label="Shape <= -1.0325\ngini = 0.32\nsamples = 4\nvalue = [1, 4]"] ;
207 -> 208 ;
209 [label="gini = 0.0\nsamples = 2\nvalue = [0, 2]"] ;
208 -> 209 ;
210 [label="Age <= -0.974\ngini = 0.4444\nsamples = 2\nvalue = [1, 2]"] ;
208 -> 210 ;
211 [label="gini = 0.0\nsamples = 1\nvalue = [0, 2]"] ;
210 -> 211 ;
212 [label="gini = 0.0\nsamples = 1\nvalue = [1, 0]"] ;
210 -> 212 ;
213 [label="gini = 0.0\nsamples = 1\nvalue = [1, 0]"] ;
207 -> 213 ;
214 [label="Age <= -0.3943\ngini = 0.0689\nsamples = 15\nvalue = [1, 27]"] ;
206 -> 214 ;
215 [label="Age <= -0.5648\ngini = 0.142\nsamples = 8\nvalue = [1, 12]"] ;
214 -> 215 ;
216 [label="gini = 0.0\nsamples = 5\nvalue = [0, 8]"] ;
215 -> 216 ;
217 [label="gini = 0.32\nsamples = 3\nvalue = [1, 4]"] ;
215 -> 217 ;
218 [label="gini = 0.0\nsamples = 7\nvalue = [0, 15]"] ;
214 -> 218 ;
219 [label="Age <= 0.049\ngini = 0.1975\nsamples = 4\nvalue = [8, 1]"] ;
205 -> 219 ;
220 [label="gini = 0.0\nsamples = 1\nvalue = [4, 0]"] ;
219 -> 220 ;
221 [label="Shape <= 0.1756\ngini = 0.32\nsamples = 3\nvalue = [4, 1]"] ;
219 -> 221 ;
222 [label="gini = 0.0\nsamples = 1\nvalue = [1, 0]"] ;
221 -> 222 ;
223 [label="gini = 0.375\nsamples = 2\nvalue = [3, 1]"] ;
221 -> 223 ;
224 [label="gini = 0.0\nsamples = 1\nvalue = [0, 1]"] ;
204 -> 224 ;
225 [label="Shape <= 0.5783\ngini = 0.18\nsamples = 20\nvalue = [3, 27]"] ;
193 -> 225 ;
226 [label="gini = 0.0\nsamples = 2\nvalue = [0, 4]"] ;
225 -> 226 ;
227 [label="Density <= -1.1852\ngini = 0.2041\nsamples = 18\nvalue = [3, 23]"] ;
225 -> 227 ;
228 [label="gini = 0.0\nsamples = 1\nvalue = [0, 1]"] ;
227 -> 228 ;
229 [label="Age <= -0.633\ngini = 0.2112\nsamples = 17\nvalue = [3, 22]"] ;
227 -> 229 ;
230 [label="gini = 0.0\nsamples = 6\nvalue = [0, 10]"] ;
229 -> 230 ;
231 [label="Age <= -0.2238\ngini = 0.32\nsamples = 11\nvalue = [3, 12]"] ;
229 -> 231 ;
232 [label="Age <= -0.3602\ngini = 0.4898\nsamples = 6\nvalue = [3, 4]"] ;
231 -> 232 ;
233 [label="Age <= -0.5307\ngini = 0.375\nsamples = 4\nvalue = [1, 3]"] ;
232 -> 233 ;
234 [label="gini = 0.4444\nsamples = 3\nvalue = [1, 2]"] ;
233 -> 234 ;
235 [label="gini = 0.0\nsamples = 1\nvalue = [0, 1]"] ;
233 -> 235 ;
236 [label="gini = 0.4444\nsamples = 2\nvalue = [2, 1]"] ;
232 -> 236 ;
237 [label="gini = 0.0\nsamples = 5\nvalue = [0, 8]"] ;
231 -> 237 ;
238 [label="Age <= 1.8903\ngini = 0.1036\nsamples = 134\nvalue = [12, 207]"] ;
192 -> 238 ;
239 [label="Density <= -4.0364\ngini = 0.0791\nsamples = 121\nvalue = [8, 186]"] ;
238 -> 239 ;
240 [label="Shape <= 0.1756\ngini = 0.4444\nsamples = 2\nvalue = [1, 2]"] ;
239 -> 240 ;
241 [label="gini = 0.0\nsamples = 1\nvalue = [1, 0]"] ;
240 -> 241 ;
242 [label="gini = 0.0\nsamples = 1\nvalue = [0, 2]"] ;
240 -> 242 ;
243 [label="Density <= -1.1852\ngini = 0.0706\nsamples = 119\nvalue = [7, 184]"] ;
239 -> 243 ;
244 [label="gini = 0.0\nsamples = 3\nvalue = [0, 4]"] ;
243 -> 244 ;
245 [label="Shape <= 0.5783\ngini = 0.0721\nsamples = 116\nvalue = [7, 180]"] ;
243 -> 245 ;
246 [label="gini = 0.0\nsamples = 15\nvalue = [0, 22]"] ;
245 -> 246 ;
247 [label="Age <= 1.072\ngini = 0.0812\nsamples = 101\nvalue = [7, 158]"] ;
245 -> 247 ;
248 [label="Age <= 1.0038\ngini = 0.1082\nsamples = 74\nvalue = [7, 115]"] ;
247 -> 248 ;
249 [label="Margin <= -0.2\ngini = 0.066\nsamples = 71\nvalue = [4, 113]"] ;
248 -> 249 ;
250 [label="gini = 0.0\nsamples = 1\nvalue = [2, 0]"] ;
249 -> 250 ;
251 [label="Age <= 0.6628\ngini = 0.0342\nsamples = 70\nvalue = [2, 113]"] ;
249 -> 251 ;
252 [label="Age <= 0.39\ngini = 0.0571\nsamples = 41\nvalue = [2, 66]"] ;
251 -> 252 ;
253 [label="gini = 0.0\nsamples = 21\nvalue = [0, 40]"] ;
252 -> 253 ;
254 [label="Margin <= 1.0769\ngini = 0.1327\nsamples = 20\nvalue = [2, 26]"] ;
252 -> 254 ;
255 [label="Margin <= 0.4385\ngini = 0.2076\nsamples = 12\nvalue = [2, 15]"] ;
254 -> 255 ;
256 [label="gini = 0.0\nsamples = 4\nvalue = [0, 5]"] ;
255 -> 256 ;
257 [label="Age <= 0.4582\ngini = 0.2778\nsamples = 8\nvalue = [2, 10]"] ;
255 -> 257 ;
258 [label="gini = 0.4444\nsamples = 2\nvalue = [1, 2]"] ;
257 -> 258 ;
259 [label="Age <= 0.5946\ngini = 0.1975\nsamples = 6\nvalue = [1, 8]"] ;
257 -> 259 ;
260 [label="gini = 0.0\nsamples = 3\nvalue = [0, 3]"] ;
259 -> 260 ;
261 [label="gini = 0.2778\nsamples = 3\nvalue = [1, 5]"] ;
259 -> 261 ;
262 [label="gini = 0.0\nsamples = 8\nvalue = [0, 11]"] ;
254 -> 262 ;
263 [label="gini = 0.0\nsamples = 29\nvalue = [0, 47]"] ;
251 -> 263 ;
264 [label="BI-RADS <= 0.5861\ngini = 0.48\nsamples = 3\nvalue = [3, 2]"] ;
248 -> 264 ;
265 [label="Margin <= 0.7577\ngini = 0.375\nsamples = 2\nvalue = [3, 1]"] ;
264 -> 265 ;
266 [label="gini = 0.0\nsamples = 1\nvalue = [0, 1]"] ;
265 -> 266 ;
267 [label="gini = 0.0\nsamples = 1\nvalue = [3, 0]"] ;
265 -> 267 ;
268 [label="gini = 0.0\nsamples = 1\nvalue = [0, 1]"] ;
264 -> 268 ;
269 [label="gini = 0.0\nsamples = 27\nvalue = [0, 43]"] ;
247 -> 269 ;
270 [label="Margin <= 0.4385\ngini = 0.2688\nsamples = 13\nvalue = [4, 21]"] ;
238 -> 270 ;
271 [label="gini = 0.0\nsamples = 1\nvalue = [0, 2]"] ;
270 -> 271 ;
272 [label="Age <= 2.0949\ngini = 0.2873\nsamples = 12\nvalue = [4, 19]"] ;
270 -> 272 ;
273 [label="Margin <= 1.0769\ngini = 0.4938\nsamples = 6\nvalue = [4, 5]"] ;
272 -> 273 ;
274 [label="Shape <= 0.5783\ngini = 0.5\nsamples = 3\nvalue = [2, 2]"] ;
273 -> 274 ;
275 [label="gini = 0.0\nsamples = 1\nvalue = [0, 1]"] ;
274 -> 275 ;
276 [label="Age <= 2.0267\ngini = 0.4444\nsamples = 2\nvalue = [2, 1]"] ;
274 -> 276 ;
277 [label="gini = 0.0\nsamples = 1\nvalue = [0, 1]"] ;
276 -> 277 ;
278 [label="gini = 0.0\nsamples = 1\nvalue = [2, 0]"] ;
276 -> 278 ;
279 [label="Age <= 1.9585\ngini = 0.48\nsamples = 3\nvalue = [2, 3]"] ;
273 -> 279 ;
280 [label="gini = 0.4444\nsamples = 2\nvalue = [2, 1]"] ;
279 -> 280 ;
281 [label="gini = 0.0\nsamples = 1\nvalue = [0, 2]"] ;
279 -> 281 ;
282 [label="gini = 0.0\nsamples = 6\nvalue = [0, 14]"] ;
272 -> 282 ;
}